{"input_weights":[[1.0155600309371948,-0.23693148791790009,-1.6334331035614014,-1.9357459545135498,-1.5013700723648071,2.4749510288238525,-0.8773074746131897,-0.4471864104270935,-1.3628935813903809,0.9158236980438232,1.3046517372131348,0.7094244956970215,0.4554673433303833,1.538188099861145,0.49046531319618225,-1.227724313735962,-0.1628946214914322,-1.4733682870864868,0.37378883361816406,2.0557632446289062,1.2207773923873901,-0.8096529841423035,0.4602758288383484,0.14609497785568237,-0.39082175493240356,0.17938151955604553,0.10692870616912842,-1.2470914125442505,-0.7397651672363281,-0.8610152006149292,-1.9794920682907104,-0.7529495358467102,0.720312774181366,-0.35044288635253906,-0.11539812386035919,0.47589731216430664,-0.030638383701443672,-1.4276535511016846,0.3854998052120209,-1.1753520965576172],[-0.4390503168106079,-0.06416146457195282,0.08113951981067657,-0.22494161128997803,-1.1250556707382202,0.14122577011585236,0.34189507365226746,-0.9118748903274536,-0.19938717782497406,0.10298116505146027,-0.5478389859199524,-0.4977198839187622,-0.1699795126914978,-2.998972177505493,0.5462075471878052,-0.961814820766449,-0.9180161356925964,-0.07783963531255722,0.7058321833610535,1.8076282739639282,0.21178433299064636,1.0531481504440308,-0.1049274131655693,-0.06545685231685638,0.7135712504386902,-0.5265339016914368,2.5443015098571777,-0.5946287512779236,0.22967231273651123,-1.5346888303756714,0.23978185653686523,-0.02088487334549427,0.42089012265205383,0.6983646154403687,0.05703286454081535,0.5813020467758179,-0.8516399264335632,-0.5676956176757812,0.2308196723461151,-2.306164026260376],[0.8559699058532715,-0.9918280839920044,-0.35894209146499634,-1.4920039176940918,0.4814486801624298,0.029852312058210373,-0.11188263446092606,0.7101798057556152,0.8807274103164673,0.16437721252441406,0.6142072081565857,0.04009745270013809,0.35066089034080505,-1.2931808233261108,-1.1533828973770142,1.038004994392395,0.03560952842235565,-0.8966423869132996,-1.097100019454956,-0.2291565090417862,-0.3382268249988556,2.7725164890289307,0.01620018295943737,-0.18446771800518036,-2.132133722305298,0.3408713638782501,1.6661008596420288,0.252500981092453,-0.701365053653717,-1.547163724899292,-1.2245063781738281,-0.41593071818351746,0.8004215359687805,-1.6510512828826904,-0.876842200756073,-0.2831031084060669,0.8114586472511292,0.5811459422111511,-0.8948522210121155,-1.0268160104751587],[0.25280430912971497,1.9151579141616821,0.022552451118826866,0.3728562593460083,0.7373661398887634,0.16656991839408875,0.04249785095453262,0.20447306334972382,1.5634177923202515,0.7592923045158386,0.23296137154102325,-0.47931310534477234,-1.0070172548294067,-1.088805079460144,1.9888591766357422,-0.26906266808509827,-1.8854789733886719,0.769302248954773,0.510164737701416,0.9629614353179932,0.839642345905304,0.020459700375795364,2.2264366149902344,1.3160903453826904,0.2919144630432129,0.8358476161956787,0.9888494610786438,-0.9135716557502747,0.5410439372062683,0.41592806577682495,1.3089637756347656,-1.2530384063720703,-2.219977378845215,-2.210986852645874,1.3140206336975098,-0.33639922738075256,-0.658639132976532,-0.11838952451944351,0.002732766093686223,-0.4458502233028412],[0.36167004704475403,0.26696550846099854,0.7892648577690125,-0.2191573530435562,-1.196785569190979,-1.2984771728515625,0.4664669930934906,0.0279601588845253,-1.3686649799346924,1.281908631324768,-1.081704020500183,-1.2203295230865479,0.7753200531005859,3.240731716156006,0.8965816497802734,-0.4694516658782959,-1.4678168296813965,0.8677282929420471,-0.5142353177070618,-1.0555000305175781,-1.3587055206298828,-0.8389161825180054,0.27974894642829895,0.5578318238258362,0.973034143447876,-0.46653613448143005,-0.1305542290210724,-0.02161918208003044,-0.016421260312199593,0.061882659792900085,0.7260956168174744,0.9927067160606384,-1.205454707145691,0.8322610855102539,-0.9421045184135437,-1.8033825159072876,0.9874613881111145,1.566048502922058,0.579520046710968,0.06840857118368149]],"output_weights":[[1.3366596698760986,0.13158662617206573],[-1.9325177669525146,-0.8323928117752075],[0.2140924036502838,-0.964158833026886],[0.46782752871513367,0.8542685508728027],[-1.0039103031158447,-1.8599727153778076],[0.23968565464019775,0.6420484781265259],[-1.1968536376953125,0.698400616645813],[-0.9514477252960205,-1.3772317171096802],[0.6747416257858276,1.8132439851760864],[-1.4109344482421875,-0.15752576291561127],[-0.14539505541324615,0.06947144865989685],[-0.6323366165161133,0.4652765095233917],[0.9292824268341064,1.595136046409607],[0.09686800837516785,-0.3752468228340149],[-0.45905646681785583,1.7791965007781982],[-1.1696693897247314,0.8834445476531982],[1.1889280080795288,0.7279052138328552],[-1.2217512130737305,-0.24932381510734558],[-0.561394214630127,1.0169970989227295],[-0.839114248752594,-0.9651943445205688],[0.22245348989963531,-0.7076284289360046],[-0.328633576631546,1.0426944494247437],[-0.5116549134254456,1.4701354503631592],[-1.009035587310791,0.02311471849679947],[-0.9942346215248108,-0.968517005443573],[1.1141780614852905,-1.1976428031921387],[1.051586389541626,0.4781930446624756],[-0.7383602261543274,-1.0317708253860474],[-1.2031364440917969,0.7188664078712463],[0.6402578949928284,-1.438225269317627],[-0.9180871248245239,1.9727413654327393],[1.4391801357269287,1.5882513523101807],[0.008392508141696453,-0.42175382375717163],[0.22418592870235443,0.9769283533096313],[-0.30350610613822937,-0.7206032276153564],[-0.5297592282295227,0.4112809896469116],[-0.3687553107738495,1.6433196067810059],[0.9342454671859741,0.7794950604438782],[-0.6685883402824402,-0.9395859837532043],[1.620521068572998,0.4195152521133423]]}