{"input_weights":[[-0.9347786903381348,0.9381185173988342,-3.592545747756958,-1.7404872179031372,0.9792359471321106,0.9877263307571411,0.5273764133453369,1.213569164276123,1.2150527238845825,0.11211287975311279,1.5271861553192139,0.7048958539962769,-1.2748756408691406,0.6661389470100403,-0.8082635998725891,0.35343384742736816,0.23297636210918427,1.1110284328460693,0.3303593695163727,0.2925487458705902,-0.1923564225435257,0.244305819272995,-0.685279369354248,-0.00347871333360672,1.4465645551681519,1.3944182395935059,1.3061367273330688,-0.8994619250297546,0.7535030245780945,0.26837798953056335,0.39160439372062683,0.6411086320877075,-0.40764084458351135,-1.4859142303466797,-0.06800059229135513,-1.6197203397750854,0.08498278260231018,1.1395788192749023,-0.8510097861289978,1.933915615081787],[-0.08184701204299927,-1.304356575012207,-0.9933621287345886,0.7879092693328857,-0.7941008806228638,-3.2156713008880615,-0.24715915322303772,1.4480465650558472,-1.2165429592132568,1.0518914461135864,-1.7440773248672485,-0.43500271439552307,-0.7441158294677734,-0.52396160364151,1.5425333976745605,0.053354837000370026,-0.5772826671600342,0.07164477556943893,0.2755567133426666,1.9140055179595947,-1.9688295125961304,1.361452579498291,1.1334853172302246,1.0797574520111084,-0.43077775835990906,-0.4028128981590271,-2.305819034576416,1.350661039352417,0.9495251774787903,-0.5051344633102417,1.4420934915542603,1.188883662223816,-0.8658864498138428,-0.1358838826417923,1.3664947748184204,1.5680845975875854,0.39900705218315125,0.44983696937561035,-2.3890533447265625,-0.7747650146484375],[1.0990334749221802,-0.7619811296463013,0.07403626292943954,0.14673401415348053,-0.1926518976688385,-1.8611185550689697,-1.2522943019866943,-0.8093680739402771,0.26335978507995605,-1.6922558546066284,0.9373387098312378,2.6501989364624023,-0.4063708484172821,0.1328548789024353,1.4851670265197754,0.26033520698547363,0.7841278314590454,0.3854081928730011,0.9070435762405396,-0.07270712405443192,0.09642083197832108,0.044792331755161285,-0.5705663561820984,0.7694509029388428,-0.6636083722114563,-0.2463199496269226,0.2988518476486206,0.9810455441474915,-0.912723958492279,-0.07387283444404602,-2.1362144947052,0.28463923931121826,1.2011725902557373,0.13175293803215027,-0.13677813112735748,-1.784949541091919,1.022017002105713,-1.5972155332565308,0.6121552586555481,2.021012544631958],[1.1808513402938843,-0.6770119667053223,-0.2948065996170044,-1.2628223896026611,-0.7726079821586609,-0.12564390897750854,-1.6152102947235107,1.6973552703857422,0.24966385960578918,1.390028476715088,1.2168166637420654,0.07573829591274261,-0.4913831353187561,0.31791624426841736,-2.8798279762268066,0.11220799386501312,-0.4563569128513336,-2.218886375427246,-0.9462899565696716,0.9862708449363708,-0.6032285094261169,1.7751375436782837,-0.3170816898345947,-1.793255090713501,0.47325703501701355,-1.3769787549972534,0.11454512923955917,-1.3303775787353516,0.6498780250549316,-0.7142974138259888,-0.9199835658073425,-0.4220830202102661,-0.44082173705101013,0.5325807929039001,0.587066113948822,-1.751509666442871,0.35792818665504456,-0.2526932954788208,-0.14104102551937103,1.1750985383987427],[0.3950517475605011,1.3377777338027954,-0.7176518440246582,0.7721645832061768,-0.867542564868927,0.9032267928123474,-0.347019761800766,-0.7348884344100952,0.4921991229057312,0.6533508896827698,-0.5829293727874756,-0.5018091797828674,-0.6600866913795471,-2.4860594272613525,-0.5477204322814941,-0.6871581673622131,0.6804798245429993,0.17265784740447998,0.23433342576026917,-0.02585182897746563,0.21490642428398132,-0.7595127820968628,-1.270873785018921,0.2791018784046173,-0.16309772431850433,-0.48155635595321655,-0.34907597303390503,1.3297722339630127,0.6737468838691711,-0.19521461427211761,0.9601038694381714,-0.9908398985862732,0.1784648597240448,1.0821713209152222,-0.5288041830062866,0.9128060936927795,1.0859172344207764,-0.4443501830101013,-1.164840579032898,-0.3107507526874542],[-0.15190507471561432,-0.6903502345085144,0.7433587312698364,0.7647101879119873,-1.928011178970337,-0.936915934085846,-0.13172665238380432,1.3149465322494507,0.20704400539398193,-0.502163827419281,-2.30203914642334,-0.02798314206302166,0.42809465527534485,0.25618791580200195,-0.22095483541488647,1.3890072107315063,-2.0328643321990967,0.815767765045166,-0.16979047656059265,-1.4436551332473755,-1.330057978630066,-0.01135197002440691,0.22685247659683228,2.0153558254241943,-1.0947089195251465,-0.6623048782348633,1.195694088935852,-0.22690506279468536,0.7495343089103699,-0.10568884015083313,1.9524004459381104,-0.6883396506309509,0.031039727851748466,-0.03977551683783531,-1.8818329572677612,-0.308174729347229,-0.381650447845459,0.5594644546508789,-1.7239601612091064,0.13294172286987305],[-0.6316373944282532,-0.9689281582832336,0.5466044545173645,-0.7858771681785583,2.405729293823242,1.6623390913009644,-1.0424846410751343,-0.09765974432229996,-0.09685944020748138,-2.926316499710083,0.2688440978527069,0.7766533493995667,-0.8593625426292419,0.9750361442565918,0.5973103046417236,0.6736941933631897,0.16852551698684692,-0.09943215548992157,0.6873975396156311,-1.1670887470245361,0.1624121069908142,-0.8935744762420654,1.094984769821167,0.8133043646812439,0.3603898584842682,1.3699108362197876,2.6454429626464844,-0.561626672744751,-1.6581356525421143,0.028912542387843132,0.6222580671310425,-0.8869943618774414,-0.4274415373802185,-0.07574771344661713,0.8445305228233337,-1.0575275421142578,-0.8240286111831665,1.2848706245422363,-0.6561151742935181,-1.1055456399917603],[0.4501212537288666,-0.9226330518722534,0.7816510796546936,0.13320030272006989,-1.186895489692688,-1.3515032529830933,0.21855944395065308,1.1668421030044556,-1.2576558589935303,-0.4402937591075897,0.27003419399261475,-1.5515565872192383,1.2740685939788818,0.5395987629890442,0.13276179134845734,1.056510090827942,0.5145931839942932,1.2703375816345215,-0.38309407234191895,-0.8235055804252625,0.4836942255496979,-1.1164528131484985,-1.1593767404556274,0.5288066864013672,0.4271243214607239,-0.15474505722522736,-0.27361151576042175,1.7193723917007446,1.2271116971969604,-0.3432481586933136,1.2967568635940552,2.3698227405548096,1.1709173917770386,-0.48548761010169983,1.5039408206939697,1.1523383855819702,-0.17451582849025726,-0.8244207501411438,0.009986759163439274,-1.2721267938613892]],"output_weights":[[0.1994919776916504,-1.3188773393630981],[1.6473866701126099,-0.39825186133384705],[1.3490374088287354,-1.8249766826629639],[-0.03505029156804085,0.7227644920349121],[-0.3884921371936798,0.37306615710258484],[0.7045656442642212,0.5488779544830322],[-0.6449927687644958,0.6974740624427795],[1.0656529664993286,-1.2914681434631348],[1.0920976400375366,0.014053943566977978],[0.9889841079711914,0.8213277459144592],[0.5369867086410522,0.887466549873352],[1.3660683631896973,-0.8669414520263672],[1.621666431427002,0.3391166031360626],[-0.9283483624458313,1.457600474357605],[-0.33745911717414856,-0.5082350373268127],[-1.4363540410995483,-0.41268596053123474],[-0.5888810157775879,-0.29048478603363037],[-1.3721976280212402,0.40252384543418884],[-1.3801928758621216,0.9115725159645081],[-1.0891683101654053,0.7953564524650574],[-0.3854771554470062,-1.5671252012252808],[1.3575613498687744,-1.6258139610290527],[2.0219790935516357,0.24456314742565155],[-0.1874418705701828,0.7763519883155823],[-0.24800387024879456,-0.08591838926076889],[0.0015859835548326373,0.29120582342147827],[-0.5696674585342407,0.3663942813873291],[0.6273002028465271,0.053748536854982376],[-0.08565092086791992,1.5025303363800049],[-1.6214226484298706,0.29797106981277466],[0.13430103659629822,0.22723042964935303],[-0.4545809328556061,-0.40258267521858215],[1.1027430295944214,-0.07102002948522568],[0.32467764616012573,0.5319719314575195],[-0.1764015108346939,-0.7358483672142029],[-1.4053001403808594,-0.45738130807876587],[-2.411658763885498,-0.44662874937057495],[2.1557626724243164,-0.8193017840385437],[-1.474511981010437,-0.015996364876627922],[0.58495032787323,0.3722592294216156]]}