{"input_weights":[[-0.6898254752159119,-0.21971316635608673,-0.9292399287223816,-0.4725586473941803,0.19209438562393188,-1.0858625173568726,-0.1284164935350418,0.1867973357439041,0.2153095006942749,2.118396520614624,0.09817817807197571,-0.20358452200889587,-0.4508952498435974,-0.7996442914009094,0.7927440404891968,0.17877310514450073,-0.6721899509429932,-0.2680908739566803,-0.7629097700119019,-0.8402698636054993,-0.24562379717826843,0.5228508114814758,-1.2450923919677734,0.9188506007194519,0.4017101526260376,-0.18815363943576813,-0.4721267819404602,0.08910767734050751,-0.17702645063400269,0.5885294675827026,-0.6369770765304565,-1.259653091430664,-0.8336352705955505,0.629207968711853,0.5626391768455505,0.45354437828063965,-1.680003046989441,-2.728161334991455,0.39579588174819946,1.102301001548767],[-1.8158401250839233,0.27540335059165955,-1.0855640172958374,-0.161265566945076,1.6979234218597412,1.212632179260254,0.19899161159992218,0.07194668799638748,-1.433097004890442,1.7147308588027954,0.03963049128651619,0.9522818922996521,-2.1340842247009277,0.9756535291671753,0.10356877744197845,0.9307796359062195,-1.2677372694015503,-1.6181063652038574,-1.146637201309204,-0.216619610786438,0.16114234924316406,2.0443387031555176,1.378475308418274,-0.16963395476341248,0.7615529298782349,0.5410624146461487,-0.6622956395149231,-0.09108980000019073,1.3960771560668945,-1.02106511592865,-0.6435885429382324,-2.3928706645965576,1.8080127239227295,0.5575341582298279,0.8619013428688049,1.0098483562469482,-0.43003955483436584,0.25603461265563965,-0.41680729389190674,-0.38824447989463806],[0.728134274482727,-0.19086748361587524,-1.5150712728500366,1.205141305923462,-0.7136732339859009,-0.24684330821037292,-0.3841349184513092,0.34253835678100586,0.5878511071205139,-0.4982837736606598,0.15066690742969513,0.44072824716567993,-0.2189328670501709,-0.7673504948616028,-0.4926683306694031,-0.9281454086303711,-0.5997044444084167,-0.7930942177772522,0.7396578192710876,-0.6686639785766602,0.6545277833938599,0.7612717151641846,-1.9318448305130005,1.1029152870178223,1.087597370147705,-0.03263918682932854,1.3403396606445312,2.429912567138672,-0.8829302787780762,1.2480041980743408,0.07999022305011749,-1.7878413200378418,1.773417353630066,0.973655104637146,1.8094877004623413,0.3569627106189728,-0.24256634712219238,0.055582184344530106,1.5805549621582031,0.550700843334198],[-0.5656425952911377,1.4642648696899414,0.6603829264640808,0.22334909439086914,1.0311285257339478,0.7162105441093445,-0.044901907444000244,-0.23559366166591644,0.5426689982414246,-1.798887848854065,2.3411266803741455,1.2752684354782104,0.4422014355659485,-0.046544454991817474,0.3038504421710968,0.6987680196762085,0.3985695242881775,1.685111165046692,0.7813118696212769,-0.5047587156295776,-1.6782712936401367,0.4795607328414917,1.5335437059402466,-0.3290267288684845,0.5891224145889282,-0.7841051816940308,-0.42966607213020325,-0.3794710636138916,0.21455469727516174,0.5757354497909546,1.052416443824768,-1.6643427610397339,0.1647186279296875,-0.722916305065155,0.8557475805282593,0.5764339566230774,0.835395872592926,-0.2864590287208557,2.007581949234009,-0.05652599409222603],[0.4176693856716156,-0.003484047017991543,0.4407670795917511,-0.25123298168182373,-0.7679330110549927,-0.8355647921562195,1.6980243921279907,-0.6460353136062622,0.8561838865280151,-0.8894577026367188,-0.5503679513931274,0.35203152894973755,0.4724031686782837,-0.527278482913971,1.0698968172073364,0.726391613483429,0.9649343490600586,0.05955459550023079,-0.08110801875591278,-1.3422282934188843,0.3228686451911926,0.229233980178833,-0.7033774256706238,-1.7185817956924438,-1.4672225713729858,-0.24063310027122498,1.675715684890747,0.8866634368896484,-1.9901683330535889,-0.5424836874008179,-0.012451009824872017,-0.415625661611557,-0.8391997218132019,-2.741511583328247,0.02971045672893524,0.6561343669891357,-0.5307390093803406,-0.29672497510910034,0.9781495332717896,-0.27016812562942505],[1.4572547674179077,0.24015483260154724,-0.7335026264190674,-0.3030383884906769,-0.7707391381263733,0.9024760723114014,0.0189252607524395,-0.5092853307723999,0.5478478670120239,-0.6099937558174133,1.0969363451004028,0.3504326343536377,0.8080356121063232,0.8085868954658508,-0.4212682545185089,-0.7074481248855591,1.346614122390747,0.27997568249702454,0.9605940580368042,0.8026418685913086,-0.1722506433725357,1.7666690349578857,-0.3852206766605377,-0.24607300758361816,-1.059645414352417,0.38771772384643555,0.20787017047405243,-0.2546420693397522,-1.51784086227417,-2.2183501720428467,-0.8994368314743042,1.1510909795761108,2.1932766437530518,0.6215776205062866,-0.06980054825544357,-0.5469518899917603,-0.17827337980270386,-1.6996430158615112,1.7582989931106567,0.24171486496925354],[0.03622337803244591,-0.5591999888420105,0.41290509700775146,0.41374340653419495,-0.4889480471611023,1.4498623609542847,0.5985338091850281,0.4304840564727783,-0.81013423204422,0.34702757000923157,-0.9173257946968079,1.311667799949646,1.9874053001403809,0.29267603158950806,-0.5959539413452148,-0.19175606966018677,0.07039160281419754,-0.31043267250061035,0.23219908773899078,-1.1083314418792725,-0.14632129669189453,1.1702165603637695,1.4230164289474487,-2.281949281692505,-0.12433862686157227,0.9517638087272644,1.3874224424362183,0.005671486724168062,-0.8904939889907837,0.8232320547103882,0.43025290966033936,-1.701342225074768,-0.6147335171699524,1.057112216949463,0.17649149894714355,1.1826249361038208,-0.6459864377975464,-2.2351417541503906,-0.8777325749397278,0.14572730660438538],[-0.5198705196380615,0.2116052508354187,0.5146371722221375,-2.3004462718963623,-0.06290387362241745,-0.12217843532562256,-0.18251973390579224,-0.5298402309417725,0.7229604721069336,-0.4393867254257202,-2.104656457901001,-1.4789484739303589,-1.6254074573516846,0.9630089998245239,1.166689395904541,-0.21147124469280243,0.856819212436676,-0.12220187485218048,0.8983111381530762,0.1731872856616974,1.186056137084961,-0.1905907839536667,-0.820846438407898,-0.050215598195791245,-0.2330227941274643,0.2500019073486328,1.4408786296844482,-0.44425198435783386,0.7269169092178345,0.980272114276886,0.4603179693222046,0.5545589327812195,-0.6961555480957031,-1.2486317157745361,-1.4803893566131592,-0.24338258802890778,0.041843481361866,1.6283924579620361,-0.22292068600654602,-0.45802590250968933]],"output_weights":[[-0.8532732725143433,-0.9360393285751343],[0.43728315830230713,0.5284824967384338],[-1.6112478971481323,-1.4884579181671143],[0.7744908332824707,-0.4739360511302948],[1.0714114904403687,0.021186761558055878],[-0.9188947677612305,0.6626676321029663],[0.5137070417404175,1.693192958831787],[-0.2541411519050598,0.5364335179328918],[0.09552516043186188,-0.5793545246124268],[1.238818645477295,-0.6692382097244263],[0.9045689702033997,-0.9602646827697754],[0.7501272559165955,0.33532238006591797],[0.9342805743217468,0.5076791644096375],[0.5382277965545654,-1.8377043008804321],[-0.32932984828948975,-0.08860474824905396],[-0.7665281295776367,-1.2916438579559326],[-1.6189652681350708,1.3994954824447632],[-0.545766294002533,-0.0009183175279758871],[0.2152022421360016,1.2199409008026123],[1.2552210092544556,-0.8790062069892883],[-1.84653639793396,-0.4159250557422638],[-1.2221826314926147,0.8042958378791809],[0.740350067615509,-0.17688816785812378],[-0.06738302856683731,-0.22603774070739746],[0.22128255665302277,0.19704504311084747],[0.7152644991874695,-0.2610602080821991],[-0.13983190059661865,0.4364163875579834],[1.1152198314666748,-1.3601566553115845],[0.3964279592037201,0.994799792766571],[-0.23291461169719696,0.022094717249274254],[-1.3830186128616333,-0.6363116502761841],[-1.1224536895751953,0.5123894214630127],[1.2388529777526855,0.2785053253173828],[-0.2461753487586975,-1.252107858657837],[0.6909200549125671,-1.2996008396148682],[0.34583136439323425,0.26137930154800415],[-0.46794575452804565,0.2846122682094574],[-1.4044157266616821,-1.7789334058761597],[-1.0075486898422241,0.2877046763896942],[1.6257307529449463,0.4605255126953125]]}