{"input_weights":[[1.2164767980575562,0.08540179580450058,2.760697603225708,0.13796690106391907,0.024602798745036125,-0.38293346762657166,-0.32049673795700073,0.9070267081260681,0.03196733817458153,-0.15822762250900269,-0.24083450436592102,-0.9331329464912415,-1.0703552961349487,-1.3061796426773071,0.06580890715122223,0.6842644810676575,0.009879812598228455,-1.353320598602295,1.0401681661605835,-0.2250468134880066,-0.9659138917922974,0.784464955329895,0.11604147404432297,0.2951100170612335,1.087471842765808,-0.9243839383125305,-0.33641621470451355,-0.23962034285068512,-1.3603847026824951,2.4426209926605225,-1.578477144241333,0.25775837898254395,-0.304953932762146,1.8735148906707764,0.5980470776557922,0.24844247102737427,-0.3449586033821106,1.1140896081924438,-1.0359936952590942,-1.8703598976135254],[-1.8724145889282227,1.146988034248352,-0.4035497307777405,-0.5121025443077087,-0.025302980095148087,1.160151720046997,0.556637704372406,0.9474119544029236,-0.004852766636759043,-0.7643921971321106,-1.9315166473388672,1.0362424850463867,1.0784227848052979,0.8048397302627563,0.3370612859725952,0.6354045271873474,-0.4521868824958801,1.0369728803634644,-0.6944840550422668,0.7032159566879272,1.0859534740447998,1.4254791736602783,-0.5785973072052002,-0.3410632610321045,-1.2413102388381958,2.2958357334136963,0.8289862275123596,0.8112398386001587,0.6927904486656189,-0.037873778492212296,0.4776313900947571,0.697358250617981,0.7065986394882202,-2.130645275115967,-0.4878864884376526,-0.02362002804875374,-1.8717468976974487,-1.6344282627105713,1.337717890739441,-0.007585235871374607],[1.0228643417358398,0.632819652557373,-0.28398770093917847,-1.9948322772979736,0.007202853914350271,-0.09653638303279877,0.9818013906478882,1.223506212234497,-1.3475894927978516,2.066972494125366,1.0120841264724731,1.0035439729690552,0.9574475884437561,-1.5201383829116821,-1.408307671546936,0.3435909152030945,-1.3377941846847534,1.3408377170562744,1.105624794960022,0.21740855276584625,1.3845555782318115,-0.32867881655693054,-1.0533537864685059,0.21370428800582886,0.34547629952430725,1.4114230871200562,0.6012101769447327,0.17797188460826874,-0.3598102629184723,1.4598714113235474,0.5475033521652222,1.5304638147354126,0.6608410477638245,-0.02531147561967373,0.6926084756851196,0.24275313317775726,0.9427204132080078,0.460123747587204,-0.5899649262428284,0.13335555791854858],[2.087618350982666,1.2693583965301514,-0.41681936383247375,0.7188789248466492,-0.141775980591774,2.0646424293518066,1.1194331645965576,-0.7705405950546265,1.5989875793457031,0.319771409034729,0.20058724284172058,0.3123961091041565,0.6094565391540527,0.6749936938285828,0.5641605854034424,0.48475754261016846,0.13950519263744354,-0.08718462288379669,0.08956992626190186,-0.12262669950723648,0.3034133315086365,-1.6286226511001587,-1.3858106136322021,1.4490585327148438,-1.0149353742599487,-2.556400775909424,0.09606487303972244,1.780142068862915,-0.29035475850105286,-0.06379824876785278,1.0349632501602173,-0.6588160991668701,-2.5573477745056152,-0.004745757672935724,-1.7538889646530151,-0.6715103387832642,-1.1615800857543945,-0.16753660142421722,-1.589874267578125,-0.49960029125213623],[-0.6620537042617798,-0.008357820101082325,-0.6493762731552124,-1.5670061111450195,-0.36544790863990784,0.527290940284729,-0.6765351891517639,-1.3523571491241455,0.6762881875038147,-0.4785785377025604,0.8906775712966919,2.35119891166687,-1.6912587881088257,-1.0416940450668335,-0.9410263895988464,0.07602233439683914,0.654695987701416,-1.0271426439285278,0.7235073447227478,0.3621921241283417,-0.9680701494216919,-1.855251669883728,-1.2766233682632446,0.12407220900058746,0.7704254984855652,0.4662553668022156,1.509063720703125,-1.6124546527862549,-0.9671197533607483,-0.6902607679367065,-0.5959611535072327,-0.2156754732131958,0.927084743976593,0.036617495119571686,0.3825259506702423,0.952463686466217,0.864325225353241,-1.339327096939087,0.1250743418931961,1.9936150312423706],[-0.1557673066854477,0.012956765480339527,1.1831728219985962,0.501684844493866,0.7578895092010498,1.4505062103271484,0.16581445932388306,-0.24028705060482025,0.042505618184804916,1.3574756383895874,0.482219934463501,0.0210304893553257,-0.7455903887748718,0.4266955554485321,-0.7752542495727539,0.30948370695114136,-1.1362663507461548,-1.1932376623153687,0.8076086044311523,-0.30332377552986145,0.8344446420669556,-2.7502126693725586,-1.3005298376083374,-0.18113009631633759,0.5555410385131836,1.0169368982315063,-0.21731683611869812,-0.8550540804862976,1.5806180238723755,0.12157544493675232,1.5635520219802856,0.3720536231994629,0.22241266071796417,-0.03233564272522926,-0.9880487322807312,0.8490647673606873,-0.38827022910118103,-0.2199438512325287,-0.2497462034225464,0.681577205657959],[-1.4915153980255127,-0.039997443556785583,2.055676221847534,-0.009298809804022312,-0.8479821681976318,-0.6937084197998047,1.7032628059387207,-0.31100165843963623,0.12632806599140167,-0.8504891395568848,-0.3470195233821869,-0.3795399069786072,0.12282578647136688,-2.597684144973755,-0.47911837697029114,0.2735479772090912,0.5713279247283936,-1.3265037536621094,-1.4419032335281372,-1.5977859497070312,-0.7946277260780334,-0.4759328365325928,0.8797310590744019,-0.2231072038412094,-2.416694402694702,1.253447413444519,0.5342152714729309,0.551196813583374,-1.2464665174484253,0.27270010113716125,-1.0618460178375244,-0.8999955058097839,-0.9056426882743835,0.1343395709991455,0.6451172828674316,-0.8477225303649902,2.6001882553100586,0.20820531249046326,0.02163015864789486,0.642676055431366],[-0.017203371971845627,-1.2305983304977417,0.5719791650772095,-0.2708578109741211,0.42530590295791626,1.3082679510116577,-1.1574597358703613,0.6506296396255493,-1.39320707321167,0.9326295256614685,1.8201597929000854,0.01517702080309391,-0.2760702073574066,0.6502255201339722,-0.136907160282135,1.9307703971862793,-0.8161401748657227,-0.14963631331920624,-0.7701352834701538,0.5879725813865662,-0.2344537079334259,-0.5195409059524536,0.22441598773002625,0.01879803277552128,0.11802967637777328,-0.6830165982246399,0.11466387659311295,-1.0045433044433594,-0.37735605239868164,-1.7192857265472412,-0.9458513259887695,-1.7336044311523438,-0.22446206212043762,-1.5243953466415405,0.0652073547244072,0.874562680721283,-0.1567566692829132,-0.13840948045253754,1.344664454460144,0.3270817995071411]],"output_weights":[[-2.0189802646636963,-0.9194886088371277],[-0.4222652018070221,0.5369077920913696],[0.1395287960767746,-1.3080953359603882],[-0.1753278374671936,1.5763835906982422],[-0.8013600707054138,-0.04220740869641304],[-0.8275532126426697,-0.6292762756347656],[0.978644073009491,-0.6590285897254944],[0.037106432020664215,2.0481770038604736],[-0.25792449712753296,0.06052715703845024],[-0.8641982078552246,-0.40815749764442444],[-0.46305516362190247,0.4786238372325897],[0.8791379332542419,-0.7816329002380371],[-1.4029484987258911,-0.4778549075126648],[0.8771381974220276,-0.7632412910461426],[-0.9399086236953735,0.2526889741420746],[0.5955875515937805,-0.6522682905197144],[1.6989295482635498,1.0959718227386475],[2.016704797744751,-2.8417153358459473],[-0.2568571865558624,-1.0749142169952393],[1.0360794067382812,-0.1756933182477951],[-0.32166749238967896,0.44167664647102356],[0.041620030999183655,1.193646788597107],[1.5539087057113647,2.2148334980010986],[-0.8362039923667908,-0.21619637310504913],[-0.9043819308280945,0.1482471376657486],[0.34540098905563354,0.4875021278858185],[0.7816141843795776,-0.4616147577762604],[1.0359073877334595,0.9239624738693237],[0.013154384680092335,-0.3736598491668701],[-1.0648958683013916,-1.0249193906784058],[-0.5109836459159851,-1.2959661483764648],[0.8881106972694397,0.31268540024757385],[-1.212515950202942,0.9360934495925903],[0.6883021593093872,0.6809480786323547],[0.7915554046630859,0.7063233852386475],[1.179764747619629,0.24657414853572845],[-1.3340603113174438,0.5176866054534912],[1.8945003747940063,0.3691640794277191],[0.9339097142219543,2.104701042175293],[-1.103380799293518,0.7432737350463867]]}