{"input_weights":[[0.12039002031087875,0.6074457764625549,-1.925544261932373,-0.6392518877983093,0.46346208453178406,-1.1506296396255493,-2.2736334800720215,-1.1298811435699463,-0.6301720142364502,0.010849093087017536,0.7541761994361877,-1.8673179149627686,-0.2557116150856018,0.6255990862846375,0.5503488779067993,-0.11827227473258972,-1.2115064859390259,-0.6353439092636108,2.1431212425231934,-0.4692041873931885,0.9566787481307983,-0.7812244296073914,-1.4366096258163452,0.5522100925445557,-1.0264456272125244,0.9315952062606812,-0.4111199975013733,0.9491129517555237,-0.141375333070755,0.28427326679229736,0.4088096022605896,1.1434357166290283,1.7627711296081543,2.072711944580078,-1.7784675359725952,-0.49451377987861633,-0.16109544038772583,1.2960851192474365,0.9054630994796753,0.23167075216770172],[-0.5025603771209717,-0.13348457217216492,0.07004747539758682,0.42675134539604187,0.9184499382972717,2.8107450008392334,2.6163532733917236,0.21340738236904144,-0.6537157297134399,0.538017988204956,-0.14743460714817047,0.7720387578010559,1.9636236429214478,1.0850534439086914,-2.195773124694824,1.273576021194458,0.7797753810882568,-0.26366913318634033,-0.09906093776226044,1.7960940599441528,-1.9588075876235962,0.6785197854042053,2.3088178634643555,-0.5148875713348389,0.6028943061828613,0.5108439326286316,0.8121415972709656,-1.7360119819641113,1.0808860063552856,-2.3069145679473877,1.0477652549743652,-0.84149169921875,0.37440308928489685,-0.8369765877723694,1.452995777130127,1.2094794511795044,0.8037970066070557,-1.8747490644454956,0.5140261054039001,1.1114479303359985],[0.848956286907196,0.6397367119789124,-1.0869221687316895,-0.7381662130355835,1.1469700336456299,0.8373913168907166,-1.475677728652954,0.6471432447433472,-1.3591469526290894,0.7541303634643555,-2.95440936088562,-0.32267308235168457,2.229675531387329,-0.5786885023117065,-0.5413321852684021,1.7079182863235474,0.11199002712965012,1.6603366136550903,0.6719174981117249,-0.7715831995010376,-1.4817206859588623,0.4050297439098358,-1.3541487455368042,0.3586539626121521,0.45445701479911804,3.674208164215088,-0.004899618215858936,2.037104606628418,0.24471810460090637,-0.40617603063583374,-1.6282671689987183,0.13354653120040894,0.9150429368019104,1.153244972229004,-1.8368948698043823,-0.4221118688583374,-1.5002976655960083,0.41500240564346313,0.48054423928260803,0.43035364151000977],[0.3552106022834778,0.5535458922386169,-0.2718249261379242,0.49952441453933716,-0.9011895656585693,-0.5451521873474121,1.3027148246765137,1.381841778755188,0.730499267578125,-0.9937791228294373,-1.0243185758590698,1.2438292503356934,-0.10833225399255753,-0.9346293210983276,0.2639356255531311,-0.45598459243774414,-0.5074961185455322,0.7015710473060608,0.10998064279556274,-0.9296788573265076,0.09350220859050751,0.9057517051696777,-0.40827012062072754,0.4019174873828888,-1.4644006490707397,1.1648974418640137,-0.1776951551437378,0.6708072423934937,1.4511269330978394,2.1256513595581055,0.609765350818634,-0.39106908440589905,2.311788558959961,0.4009264409542084,1.819032073020935,0.6068515777587891,1.7138913869857788,-0.4472533166408539,2.10715913772583,0.995668888092041],[0.19548721611499786,0.5406585931777954,3.0844218730926514,-0.90180504322052,-0.06846299022436142,-0.6328820586204529,1.0278171300888062,2.7348434925079346,-1.1240947246551514,0.4159133732318878,-0.6214959025382996,-0.666850209236145,-1.6294434070587158,1.4182533025741577,1.8452144861221313,-1.2244246006011963,0.06746859848499298,0.16939106583595276,-1.8203197717666626,-0.8691827058792114,0.7863885164260864,-3.232009172439575,-1.0178301334381104,-0.8364257216453552,-0.1665140837430954,-1.2661288976669312,0.5445865392684937,1.033972978591919,0.7395910620689392,-1.0105000734329224,1.2706851959228516,1.1583081483840942,-0.6283965706825256,-0.5261730551719666,-0.7169331908226013,2.0381407737731934,1.3782492876052856,-1.003258466720581,0.331644743680954,0.7164010405540466],[-1.8809207677841187,-0.21684423089027405,-0.28707027435302734,0.7343438863754272,0.41210782527923584,1.2497750520706177,1.6760752201080322,1.1881698369979858,0.7149538397789001,1.5682752132415771,-1.3661274909973145,-1.2369797229766846,1.120294451713562,-0.7985925078392029,-1.798281192779541,-0.11231593042612076,-0.14457154273986816,-0.9741069078445435,-0.2667474150657654,-0.16760185360908508,-1.6690622568130493,2.008323907852173,1.3894771337509155,0.4787401854991913,-1.5896074771881104,-1.192550778388977,0.13125906884670258,0.2563507556915283,0.2549423575401306,2.127145767211914,-0.09779854118824005,0.3454970419406891,-2.5534517765045166,-1.1077897548675537,0.8990312218666077,0.8029352426528931,-0.5461971759796143,0.15756534039974213,-0.7304476499557495,0.5945629477500916],[-0.8068052530288696,-0.2795957624912262,1.5595117807388306,-0.8370639085769653,1.7598930597305298,-0.08193791657686234,-1.5660659074783325,1.9734859466552734,-0.6608464121818542,1.0206897258758545,-1.1714975833892822,-2.546105146408081,0.4958442747592926,-1.373326063156128,0.23005306720733643,-0.12309947609901428,1.2145235538482666,-1.036236047744751,0.06793384253978729,-0.3011077046394348,0.11428974568843842,0.41659870743751526,1.7604455947875977,-2.159745693206787,1.0716673135757446,0.9121624231338501,1.5609886646270752,-0.3313480019569397,-0.5591862797737122,-1.3578647375106812,1.1041805744171143,0.10255740582942963,-1.5804007053375244,0.7472151517868042,-0.44689565896987915,0.4150852560997009,-2.098727226257324,-0.36748453974723816,0.6120264530181885,1.0671563148498535],[0.7073152661323547,-0.5216792821884155,-2.53062105178833,-0.637159526348114,0.025645840913057327,0.3797893524169922,0.8064156770706177,-0.5568339228630066,1.789399266242981,-1.009867548942566,0.2800773084163666,0.3697189390659332,0.8090406060218811,2.056910753250122,0.042997460812330246,-2.0076286792755127,-0.26630285382270813,-0.40099838376045227,0.17804838716983795,2.15494966506958,-0.3920128345489502,0.16818691790103912,-0.5034224390983582,-1.3564157485961914,0.6470338106155396,0.6704608798027039,-0.19723491370677948,-1.2147018909454346,-0.7234869599342346,0.9220007061958313,0.7170659303665161,0.6339491009712219,-0.2986832857131958,-0.24967360496520996,0.4992183446884155,0.5224901437759399,0.4444059133529663,1.8887873888015747,0.2118757665157318,-1.0876820087432861]],"output_weights":[[0.5931544303894043,1.505454182624817],[-2.0315418243408203,-1.4163923263549805],[-2.2374444007873535,0.8892987966537476],[-0.7259946465492249,0.7408886551856995],[0.5699178576469421,-0.9058502912521362],[-0.17390850186347961,0.9115100502967834],[1.972249150276184,-0.010609718970954418],[-0.27782222628593445,0.36208322644233704],[0.4416569173336029,0.7267019748687744],[0.18592911958694458,1.5275572538375854],[-0.24098755419254303,0.3322579562664032],[1.3487329483032227,-0.609339714050293],[-0.8882238864898682,-1.713293194770813],[0.4526754319667816,-0.8148099184036255],[1.6581038236618042,-0.9067150354385376],[0.27266940474510193,-0.9111111164093018],[-0.3871155381202698,-3.2742199897766113],[0.3672577142715454,1.1187232732772827],[1.7208820581436157,0.7862579822540283],[-0.7034509778022766,1.4323673248291016],[1.3372454643249512,2.2250640392303467],[-0.10955778509378433,1.7976343631744385],[-0.5224894881248474,-1.787617564201355],[0.2591402232646942,-1.7380620241165161],[1.6795225143432617,-1.3844424486160278],[0.722931444644928,-2.179896116256714],[-1.192559838294983,0.04254106059670448],[-1.7144969701766968,0.9306008219718933],[2.2783734798431396,0.41201701760292053],[-0.7973807454109192,1.2328574657440186],[-0.3865659534931183,-1.169387936592102],[-3.1397931575775146,0.670677900314331],[2.0228583812713623,0.14652211964130402],[-0.5810575485229492,-2.854154586791992],[-1.5379011631011963,0.9154798984527588],[0.6980760097503662,0.310688316822052],[0.2647644281387329,-0.2820706367492676],[-0.2827911674976349,-0.411940336227417],[-1.1869316101074219,0.4283998906612396],[-0.031040919944643974,0.6819540858268738]]}