{"input_weights":[[-0.42828845977783203,-0.6625692844390869,-1.3723134994506836,-0.9824472069740295,-0.5331814885139465,0.7242194414138794,2.104774236679077,0.31867876648902893,0.07806459814310074,0.6650202870368958,-0.9442111849784851,0.5505543351173401,0.6985124945640564,0.012108071707189083,1.7137328386306763,0.29543817043304443,-0.5378184914588928,-0.2261289358139038,0.4219874143600464,-1.1681419610977173,-1.5605164766311646,0.67131507396698,-0.17208631336688995,0.037462860345840454,-0.19508661329746246,0.23079824447631836,0.07307340949773788,-0.8659752607345581,0.1874130219221115,0.2130981832742691,-0.1906939297914505,-0.6254816651344299,-0.3537336587905884,2.060727834701538,-0.7632617354393005,0.4908064007759094,0.5681025981903076,1.4541547298431396,-0.24497853219509125,0.6527036428451538],[-1.8050471544265747,0.04432156682014465,-0.791660726070404,0.20434464514255524,-1.8753089904785156,-0.03788941353559494,1.0892865657806396,1.1318466663360596,1.098509430885315,-0.7511669397354126,-1.1914829015731812,-1.1581144332885742,-1.1882991790771484,-0.24311918020248413,-0.02681383490562439,0.07059452682733536,-1.2061312198638916,0.09193162620067596,1.8095945119857788,-0.3138046860694885,3.7535738945007324,-0.43017318844795227,-0.5621795654296875,-0.9560211896896362,-0.9720878005027771,0.10725569725036621,0.7997901439666748,1.3531856536865234,0.886493444442749,1.5848312377929688,-0.9612957835197449,2.0224311351776123,0.5588087439537048,0.9211810827255249,-0.04780411720275879,-0.905440092086792,-0.565386950969696,-0.09574742615222931,-0.028622368350625038,-0.219041645526886],[1.158385992050171,-0.38451486825942993,-0.6836941242218018,-0.2113175243139267,-0.26958078145980835,0.7716498374938965,0.7670101523399353,-1.2249751091003418,0.8438763618469238,0.6143431663513184,-1.0064550638198853,0.4913613200187683,-1.0053672790527344,-0.8344901204109192,1.9613226652145386,0.8466014266014099,-1.6864935159683228,-0.43533360958099365,1.5522046089172363,-1.2558424472808838,-0.36503875255584717,-0.4848508834838867,-1.262568473815918,-0.4787823557853699,0.5101757049560547,-0.6004360318183899,2.976983070373535,-1.6005859375,1.1355663537979126,0.20638400316238403,1.1033574342727661,-0.1472196877002716,-0.3712598979473114,0.0542447529733181,0.6214391589164734,-0.13454638421535492,-1.041088342666626,0.24637797474861145,0.7278115153312683,0.38891440629959106],[-0.2698335647583008,1.6772381067276,0.15300267934799194,0.004305657465010881,0.10681678354740143,1.6752787828445435,0.9473123550415039,0.29587844014167786,2.037639856338501,-1.3400241136550903,1.621230125427246,-2.0808629989624023,-1.3187241554260254,-0.16038240492343903,-0.3116566240787506,-0.05826627090573311,-0.9884137511253357,0.7670474052429199,-1.777482271194458,-2.1902904510498047,-0.0402924045920372,-0.1866151988506317,-1.3485313653945923,0.1527593582868576,1.840849757194519,-0.11014503240585327,1.4397313594818115,-2.7379708290100098,-1.0044974088668823,-1.320280909538269,-0.6243499517440796,0.11501756310462952,0.713214635848999,-0.5294166207313538,-0.10534559190273285,1.3500440120697021,-1.2027229070663452,-0.2331642508506775,-0.27437254786491394,-0.14766326546669006],[0.05295201763510704,-1.5841610431671143,-0.1129196509718895,1.9452002048492432,1.5178745985031128,1.1470237970352173,0.09583057463169098,0.8115619421005249,0.3546634614467621,-0.240682452917099,-0.8652229905128479,1.109932541847229,-0.2912887632846832,0.1196994036436081,-1.6411267518997192,-0.5295665860176086,-0.935241162776947,-0.7468684911727905,-0.8107226490974426,-0.35327112674713135,-0.1481279879808426,2.818321466445923,-0.34112614393234253,-1.5549616813659668,0.9293951392173767,-1.944761872291565,1.5446293354034424,1.3065013885498047,0.2702665328979492,-0.27285337448120117,-1.7809923887252808,-0.35872867703437805,-0.6774992942810059,0.8146485686302185,-1.1813066005706787,0.6634265780448914,-0.44643068313598633,1.2116882801055908,0.06935420632362366,-0.4474508464336395],[1.5295530557632446,0.015320716425776482,1.182489037513733,-1.402429223060608,-1.3212063312530518,2.391338348388672,-0.9902559518814087,0.9801910519599915,-1.7796043157577515,0.39088189601898193,-0.4125182628631592,0.571607232093811,-1.8023672103881836,-1.3366196155548096,0.33490830659866333,-0.28874340653419495,-1.2099131345748901,-1.5442696809768677,1.775499939918518,0.8978976011276245,-0.13130080699920654,-0.26986053586006165,0.058355662971735,-1.2219340801239014,0.1735505759716034,0.18260164558887482,0.870884120464325,0.6231217980384827,0.5402201414108276,1.5598127841949463,-0.27062782645225525,1.0291415452957153,1.2198458909988403,0.00969704519957304,1.9779666662216187,0.6196304559707642,-1.010620355606079,-1.3072876930236816,0.19465650618076324,-0.540033757686615],[0.39743363857269287,2.1904051303863525,-0.9071786999702454,-0.7648985981941223,0.1484554409980774,0.8844515085220337,1.4513535499572754,0.3160337507724762,-0.29515811800956726,1.158559799194336,0.7098466157913208,-0.7210193872451782,-0.904682457447052,-0.039047449827194214,1.5619304180145264,0.7944026589393616,-1.1357629299163818,0.5876778364181519,0.43818750977516174,0.9384331107139587,1.345935583114624,0.7037982940673828,1.4686216115951538,-1.7965925931930542,0.40731585025787354,0.09551995247602463,1.057023525238037,1.8906009197235107,-0.42122480273246765,-1.6036103963851929,0.6483452916145325,-0.3567585051059723,0.3695102035999298,0.6973279118537903,0.01736774668097496,-1.8053295612335205,0.38956838846206665,-1.6018037796020508,-0.7744669318199158,0.2686500549316406],[0.3385622799396515,0.8247873783111572,0.03708288446068764,-0.24056321382522583,-1.4362839460372925,-0.5893436670303345,0.5450901389122009,0.4134834110736847,1.587337613105774,-0.5154587626457214,-0.6003636121749878,0.07808886468410492,-0.4300791919231415,0.03888041898608208,0.5761823654174805,-1.3478972911834717,-1.13243567943573,0.23736295104026794,0.2617281675338745,0.216617614030838,-0.27905988693237305,-0.18189354240894318,1.8824427127838135,0.4667510390281677,0.9335255026817322,-0.6956978440284729,-0.043767694383859634,1.5968201160430908,-0.037170786410570145,-0.0723249539732933,0.11664921045303345,0.012879668734967709,0.6690611839294434,0.4083394408226013,-1.3531110286712646,-0.7686641812324524,0.5077717304229736,-1.14863920211792,0.039091289043426514,-1.3385190963745117]],"output_weights":[[0.06738822907209396],[-1.2304021120071411],[0.8820841312408447],[0.2062360942363739],[1.6928651332855225],[0.5174387097358704],[0.5495059490203857],[-0.6557859778404236],[0.9387162327766418],[-1.7104781866073608],[-1.3268405199050903],[1.7578771114349365],[-0.5040555596351624],[0.7695878744125366],[0.17205244302749634],[1.9453662633895874],[-0.2094414383172989],[0.544359564781189],[-1.0353145599365234],[1.1313997507095337],[-0.7818223834037781],[-0.882579505443573],[0.8726846575737],[-0.9762916564941406],[-0.8239440321922302],[-0.6511473059654236],[-0.1852564662694931],[1.3596099615097046],[0.03343065455555916],[0.3748273551464081],[0.292741596698761],[-0.4234220087528229],[-1.1100794076919556],[0.3287930488586426],[-0.8353714346885681],[-0.940654993057251],[-1.007322072982788],[-1.0727458000183105],[-1.2291570901870728],[1.520803689956665]]}