{"input_weights":[[-0.9329870939254761,-1.7533878087997437,-0.44559887051582336,0.14851656556129456,-0.7280660271644592,0.4345392882823944,-1.5815743207931519,0.2387217879295349,0.7236917614936829,-0.23280173540115356,0.9555312395095825,-0.7331141829490662,-0.48194068670272827,-0.37210872769355774,-0.2873983085155487,0.4757702946662903,0.07379048317670822,0.8615053296089172,-0.5605067610740662,-1.0061564445495605,-0.6531534194946289,-0.958744466304779,0.4255232810974121,1.7966082096099854,-1.0155811309814453,0.14500677585601807,0.20941735804080963,-1.4112980365753174,0.011397173628211021,0.3260311484336853,0.5818721055984497,1.4327595233917236,0.026681218296289444,1.001120924949646,-1.355818510055542,1.1946654319763184,-2.0558857917785645,0.2535906434059143,0.7572656273841858,-0.7472268342971802],[0.4268105626106262,1.467869520187378,1.8156405687332153,-1.0572444200515747,0.7502204775810242,0.4573279023170471,-0.6238369345664978,0.46975791454315186,-0.8497118949890137,1.8796979188919067,-0.046836335211992264,0.9900858998298645,-0.10701493173837662,0.44556257128715515,-2.003727912902832,0.6351423263549805,0.8284192085266113,-0.1940011978149414,2.4876468181610107,-0.7552709579467773,-1.2141785621643066,0.769000232219696,-0.8435207009315491,-0.732539176940918,-0.2571052312850952,-1.2522917985916138,0.4376944601535797,-0.7675473093986511,-0.3417913019657135,-1.0076614618301392,-2.185337543487549,-1.00369393825531,0.05712230131030083,-0.11722655594348907,1.183364748954773,-1.3454251289367676,-0.18462000787258148,0.475807249546051,0.5922126770019531,-0.13022761046886444],[2.8427345752716064,-0.5358498692512512,1.1613408327102661,0.4493251144886017,0.24101676046848297,0.12355351448059082,0.5448091626167297,0.34734460711479187,0.3196171522140503,0.3508502244949341,-0.38111114501953125,-1.0033525228500366,0.18409612774848938,-0.8813168406486511,0.7062170505523682,0.9925459027290344,0.5353905558586121,-1.4368523359298706,-0.968768835067749,-0.38022488355636597,1.8239519596099854,-0.5445963740348816,-1.7134366035461426,0.33863794803619385,-0.2765791714191437,2.4624087810516357,1.4217197895050049,-0.6402444243431091,1.7264574766159058,-1.1135210990905762,0.5254558324813843,0.6397518515586853,-0.28277021646499634,-0.2548479735851288,-1.4731659889221191,-0.3971898555755615,1.676770806312561,-0.3612079322338104,-0.4843364953994751,-0.6926079988479614],[0.14188793301582336,-0.2895860970020294,0.2671377658843994,1.3382765054702759,-1.5467603206634521,0.3902200758457184,-0.7931148409843445,-1.28290593624115,-0.6014575958251953,-0.7789641618728638,-0.010812711901962757,0.28242722153663635,0.41183361411094666,0.26826512813568115,1.0051841735839844,-0.404894083738327,-0.15768341720104218,0.047614067792892456,-1.5086382627487183,0.14030562341213226,2.318504571914673,0.013056883588433266,0.24755889177322388,-2.1907572746276855,1.2149288654327393,-1.4213894605636597,-0.5322839617729187,-1.3288604021072388,1.37655770778656,1.611806035041809,-0.2315693348646164,0.14012683928012848,-0.4149041175842285,0.030506055802106857,1.029820442199707,1.031461238861084,-0.7050401568412781,0.8596509695053101,-0.33438587188720703,0.845832109451294],[0.9922019243240356,-2.2061634063720703,-0.02611696347594261,0.35986506938934326,0.1718040108680725,-0.3739612102508545,0.6063103079795837,0.45897814631462097,-0.9192327857017517,-0.394638329744339,0.13210958242416382,-2.0347185134887695,-1.400917887687683,-1.227737545967102,0.32626041769981384,-0.48395174741744995,-1.3382000923156738,0.8474279046058655,-0.6675558090209961,-0.14605847001075745,0.020522715523838997,-1.3273043632507324,-0.40065833926200867,-0.7694066762924194,-0.014621289446949959,0.643195629119873,-0.7849898338317871,-0.5294540524482727,-0.05757095664739609,1.7694807052612305,-0.518349289894104,0.8589651584625244,0.6936640739440918,0.44305330514907837,0.2685600817203522,-0.8313496112823486,0.38122427463531494,-0.18695814907550812,-1.54836106300354,0.9735845327377319],[0.6282120943069458,0.5121784806251526,2.013211727142334,0.7445123195648193,-0.8472291827201843,1.7253913879394531,0.07493796199560165,-0.7151188254356384,0.19916710257530212,-0.7096548080444336,0.08621121942996979,-0.007886954583227634,0.436143696308136,-0.141569584608078,1.018798589706421,0.22570541501045227,0.46133533120155334,2.0907530784606934,1.537341594696045,0.6375067830085754,0.039354871958494186,0.6810795068740845,1.1294008493423462,-1.7716233730316162,1.368425965309143,0.5558327436447144,0.741078794002533,0.2887517511844635,0.2522222399711609,-1.0822645425796509,-0.341636598110199,0.33376213908195496,-0.3020804524421692,-0.22635143995285034,0.39878132939338684,0.06131788715720177,-1.400148868560791,-1.07774817943573,0.4830982983112335,1.3549613952636719],[-0.796733558177948,-0.019442496821284294,-0.7476341724395752,-0.4077577590942383,-0.7482068538665771,-0.24463576078414917,0.427651047706604,-0.7618582248687744,0.6169946193695068,0.8883494734764099,-1.4325867891311646,-0.45226627588272095,-1.312506079673767,1.841103196144104,0.5743011832237244,1.0331037044525146,1.6455305814743042,-1.1640136241912842,-1.0959986448287964,-0.37152165174484253,-0.28809070587158203,1.658992052078247,1.093342661857605,0.6441410183906555,0.9879826903343201,0.48016709089279175,-0.6714048385620117,-0.7979841232299805,1.475272297859192,-0.026129532605409622,-1.0725343227386475,-0.7527981400489807,-1.1299636363983154,0.25231218338012695,-0.16209042072296143,-0.4815303385257721,-0.7495065331459045,-0.9646245837211609,-0.5962378978729248,-0.6179114580154419],[-0.42296960949897766,0.7314705848693848,-0.7348484992980957,-0.43486228585243225,0.03642822802066803,-0.29701703786849976,-1.0271767377853394,0.5952456593513489,1.6397018432617188,1.0514990091323853,-1.6579793691635132,-0.9683657288551331,-0.0519103929400444,0.926444947719574,0.7965213060379028,2.3875234127044678,-0.36299070715904236,-2.3446578979492188,-1.0149405002593994,0.44230252504348755,1.0169848203659058,0.5048342943191528,0.5951007008552551,0.15572401881217957,-0.5057944655418396,1.0716171264648438,0.7470763325691223,-0.7018939256668091,-0.39229312539100647,0.7366141080856323,-0.3955141603946686,2.219200372695923,0.7376291155815125,-2.4755859375,-0.5294991731643677,-0.500005841255188,-0.28022637963294983,-0.1100514680147171,-0.3375539481639862,0.872230589389801]],"output_weights":[[-0.5883826613426208,-1.6946473121643066],[-0.5884553790092468,1.7390347719192505],[-0.8276216983795166,-0.21538250148296356],[-0.6152603626251221,0.9824597239494324],[1.2210904359817505,-0.10602966696023941],[0.40766170620918274,-1.0026448965072632],[0.693254292011261,-0.599048376083374],[1.257108449935913,-0.7760453224182129],[-0.6994675993919373,0.45632174611091614],[0.5559189319610596,1.9967988729476929],[-0.4717210829257965,-0.5680521130561829],[1.0762126445770264,-0.2271765172481537],[1.1857513189315796,-1.205538272857666],[1.0345516204833984,0.09070806950330734],[0.3204896152019501,0.3749634623527527],[0.4421471357345581,-1.6732956171035767],[0.06247112527489662,1.9413557052612305],[-0.30096834897994995,1.5120487213134766],[1.9634852409362793,-1.1957998275756836],[-0.5797048807144165,2.9944169521331787],[-1.013650894165039,0.575370192527771],[1.5252655744552612,-0.8226092457771301],[-1.8739579916000366,0.4079637825489044],[-0.06620965152978897,-1.0041279792785645],[-0.25141647458076477,-0.6525142788887024],[0.9228876233100891,-0.5485935211181641],[0.10454007238149643,-0.258456289768219],[-2.312222480773926,0.8406617045402527],[0.2668231725692749,-0.08925280719995499],[-0.7349664568901062,0.27950507402420044],[-1.8771395683288574,0.630926251411438],[0.21342061460018158,-1.4155012369155884],[1.8453636169433594,0.038514576852321625],[1.3246129751205444,-0.9745010137557983],[0.3516061007976532,-0.3874284625053406],[-2.7486672401428223,0.7357664704322815],[-1.884531021118164,0.9145427942276001],[-0.611699104309082,0.035155992954969406],[1.5782450437545776,0.9415018558502197],[0.9389561414718628,-1.0394610166549683]]}