{"input_weights":[[-0.7969344854354858,-0.28382205963134766,-1.4090521335601807,0.4614095687866211,0.7257204055786133,1.3298335075378418,0.3527447283267975,-0.28703296184539795,-1.4992096424102783,0.7445791363716125,1.4299157857894897,1.1228073835372925,-0.8107197880744934,0.896308958530426,0.32994189858436584,-0.6478471159934998,0.9458973407745361,-0.06002392992377281,-0.309621125459671,-1.333153247833252,0.4919055998325348,-1.1812596321105957,-1.359246850013733,-2.01473331451416,2.1214232444763184,0.8238016963005066,-0.062936931848526,0.14752861857414246,-0.7552362680435181,0.7615630030632019,0.9019944667816162,0.5009863972663879,-0.206342414021492,0.6097251176834106,0.5700893402099609,0.036698345094919205,-1.533144474029541,0.8439542055130005,-0.45133814215660095,0.7691606879234314],[1.452770709991455,0.5344663262367249,-0.5527836680412292,-0.02894475683569908,-1.9621925354003906,0.1246284544467926,-0.192400261759758,0.5232967734336853,-0.19315727055072784,0.40883901715278625,1.296027660369873,1.6497219800949097,1.5542887449264526,-0.3944202661514282,0.4827830195426941,0.06453243643045425,1.9127697944641113,0.19654710590839386,-0.6576299071311951,-0.4860233664512634,-2.0671463012695312,0.5836372971534729,0.5875037908554077,-1.7011728286743164,-0.6361923217773438,0.5219493508338928,-0.791953980922699,-2.1050033569335938,-1.4114878177642822,-0.8506153225898743,-3.026292562484741,0.36846795678138733,0.007957090623676777,0.5490689277648926,0.5662130117416382,-0.026142427697777748,-2.6627097129821777,0.4250805675983429,-0.2355087548494339,1.1736068725585938],[0.6512194871902466,-1.0742462873458862,-0.4865555465221405,0.27152544260025024,0.05736158415675163,1.9948559999465942,0.8139497637748718,0.5480884313583374,0.12294159084558487,0.19921456277370453,-1.3263404369354248,0.6470062136650085,2.565364360809326,0.5834434032440186,1.9866251945495605,-2.1024348735809326,0.09249184280633926,-1.1780372858047485,0.2491605430841446,-0.9161286354064941,-0.7134355306625366,0.2800373136997223,2.977367401123047,-0.35629722476005554,-0.12323258072137833,-1.786029577255249,-0.17481011152267456,-1.213728427886963,-0.14168986678123474,-0.03513399511575699,-0.2689717411994934,0.1292434185743332,1.5334018468856812,1.0247126817703247,-0.5222355127334595,-1.4372789859771729,0.352801114320755,0.9704163670539856,-1.339023470878601,0.2878277599811554],[-0.017930690199136734,0.9890055060386658,1.994661569595337,0.6627568006515503,-0.19636270403862,-0.6453436613082886,-1.124155044555664,-1.75333571434021,-1.2558773756027222,-0.4876044690608978,-0.4199574291706085,0.8132862448692322,1.0713090896606445,-0.029690098017454147,1.2290232181549072,-1.7672537565231323,-0.402981162071228,1.5574816465377808,2.109262704849243,-0.036341775208711624,-2.8104448318481445,-0.41836467385292053,-0.4548815190792084,-0.8828105330467224,-0.19066624343395233,0.503839910030365,0.29544875025749207,-0.15763702988624573,0.4614086449146271,-0.2275526374578476,0.8014854192733765,0.9288013577461243,0.676468551158905,-0.7505128383636475,-0.3795616924762726,0.1033656895160675,-0.29820549488067627,0.8775418996810913,-0.406194269657135,-0.14945316314697266],[0.12693463265895844,0.8360409140586853,-1.189136266708374,0.32055720686912537,-0.20860010385513306,-1.0181208848953247,1.9338501691818237,-0.8835626840591431,-0.4048407971858978,0.35416483879089355,0.311337947845459,-0.3255814015865326,-1.707703709602356,-0.7345176935195923,0.9710663557052612,-1.694803237915039,-0.06415186077356339,0.8930065631866455,0.4320645332336426,1.0751514434814453,0.31684809923171997,0.5779479146003723,2.1279499530792236,0.5603294968605042,-1.760969638824463,0.2604145109653473,1.1014484167099,-1.3089557886123657,-1.3203439712524414,-1.2337796688079834,-0.3974149227142334,1.6599600315093994,-0.5099027752876282,-1.5221046209335327,0.9547619819641113,1.4442778825759888,-1.7777074575424194,0.5094296932220459,0.14938503503799438,0.22710691392421722],[0.12239139527082443,0.16284020245075226,1.143162727355957,-1.8175379037857056,-0.41443702578544617,-1.0195802450180054,0.6025738716125488,-2.7263104915618896,-0.348488450050354,-1.4896163940429688,1.0079478025436401,-1.81847083568573,-1.460010051727295,-0.10209281742572784,2.218207359313965,1.6214396953582764,0.20956969261169434,0.45364877581596375,0.1480448693037033,-0.014045219868421555,0.3589131236076355,1.238938808441162,-1.6993281841278076,-0.3933456242084503,-1.0432242155075073,0.3042006492614746,0.26949137449264526,-1.9203203916549683,-0.3444787561893463,1.7316303253173828,2.7767276763916016,1.6733092069625854,-0.48368632793426514,-0.08308150619268417,2.696359634399414,-0.6208674311637878,0.6616807579994202,-1.7193683385849,-0.33075442910194397,-1.2955881357192993],[-1.6919034719467163,0.7828264832496643,0.28559327125549316,-0.7075134515762329,0.49955421686172485,-0.30226975679397583,1.008118987083435,1.6577773094177246,-0.6048458218574524,-0.06674376875162125,-0.5581565499305725,0.38739532232284546,-0.21997320652008057,2.931778907775879,-0.14083431661128998,0.14751963317394257,-0.12192986160516739,-0.005876016803085804,1.5577561855316162,0.9162996411323547,-2.1717891693115234,0.8165172338485718,0.9943265318870544,0.20092180371284485,0.7822070121765137,0.547379732131958,0.4450874924659729,0.017055511474609375,1.2893742322921753,0.2954569458961487,0.5958988666534424,1.5877223014831543,0.2681269347667694,0.5412366986274719,-0.8650175333023071,-0.9239952564239502,0.9011864066123962,-0.933628261089325,-0.30741193890571594,0.9818018078804016],[0.8117357492446899,0.6076391339302063,-1.5396209955215454,0.23421049118041992,0.9981929063796997,-0.20053400099277496,-0.4036327302455902,1.4900983572006226,0.8620786070823669,-0.3747319281101227,1.1222113370895386,0.5395785570144653,1.4943885803222656,0.35323771834373474,0.060082290321588516,-1.1420096158981323,-0.5936988592147827,-0.44851210713386536,0.6860218048095703,-0.4598187208175659,1.8968898057937622,0.46433502435684204,0.2311582714319229,1.0720553398132324,-0.16986654698848724,-0.14185672998428345,0.6526521444320679,-0.37639063596725464,-0.20343828201293945,-1.8050984144210815,-1.4022972583770752,-0.17469681799411774,2.3860085010528564,0.8516902923583984,1.3617308139801025,0.03471172973513603,-0.7670885324478149,1.2532297372817993,-0.38952499628067017,-0.4744402766227722]],"output_weights":[[-0.313981294631958],[-0.46900707483291626],[-0.2694077789783478],[1.078730583190918],[-2.1050949096679688],[-1.5590887069702148],[0.14258919656276703],[-0.21632762253284454],[-2.2397801876068115],[-0.2140040546655655],[0.6170588731765747],[0.6381788849830627],[0.8603103756904602],[0.3785485625267029],[0.40378203988075256],[0.24994277954101562],[-1.53657865524292],[-0.3210306465625763],[0.4949164092540741],[0.36379310488700867],[-0.4406728446483612],[-1.8597389459609985],[-0.22442719340324402],[0.21760320663452148],[0.006745756603777409],[2.7229816913604736],[-1.412554144859314],[-0.6505166888237],[0.28642725944519043],[-2.229848623275757],[-0.4773435592651367],[0.17147786915302277],[-0.5814043283462524],[0.728657066822052],[0.5090303421020508],[-0.3521064519882202],[0.15031243860721588],[-0.029576804488897324],[1.0201956033706665],[1.8279615640640259]]}