{"input_weights":[[1.1474130153656006,-0.0027026322204619646,1.0631991624832153,-0.17821480333805084,-0.6647378206253052,0.207515150308609,-0.33594122529029846,-0.3045225441455841,-0.2021346092224121,-0.3384523093700409,-0.7033228278160095,0.40291500091552734,0.31667768955230713,-1.2523674964904785,-0.8365741968154907,-0.908894419670105,1.0908347368240356,-0.3693932294845581,-0.7831739783287048,1.276447057723999,-0.6005890369415283,-0.07410120964050293,-0.26499900221824646,-1.4688414335250854,0.28129398822784424,0.43456214666366577,-0.11507278680801392,0.24639129638671875,-0.023177888244390488,-0.8593611717224121,0.15602244436740875,0.05662456527352333,1.7399094104766846,1.7742557525634766,0.1948252022266388,-1.2645976543426514,0.11135418713092804,1.6045444011688232,0.6410244703292847,0.1438513845205307],[-1.354590654373169,0.7949796319007874,1.120481252670288,-1.850098729133606,0.04286199435591698,1.5497336387634277,-0.2120441496372223,0.19894778728485107,0.30306071043014526,1.8086985349655151,0.5059773921966553,-0.8973526358604431,-0.268855482339859,3.1269900798797607,0.5892409682273865,-2.7952218055725098,-0.8117733597755432,2.1200850009918213,-0.44601714611053467,0.22004032135009766,-0.14431226253509521,-2.036611557006836,-0.24252423644065857,0.5809798836708069,-0.9259175062179565,0.31180763244628906,-1.2906173467636108,0.9661449193954468,1.3636516332626343,-0.22604648768901825,0.5043386220932007,0.032609738409519196,-1.8352004289627075,-0.8123659491539001,-1.4306708574295044,0.7747430205345154,0.5474181175231934,-0.6775839328765869,-1.5325530767440796,1.2036848068237305],[0.0688108503818512,0.041437190026044846,-1.6362272500991821,-0.7296407222747803,0.24438360333442688,-0.8560275435447693,1.2098727226257324,-1.0710885524749756,0.14985333383083344,0.35766124725341797,1.4584985971450806,1.7608002424240112,-0.6063854694366455,-0.5227832198143005,-1.2695519924163818,-0.9776239991188049,1.1044853925704956,-0.8943171501159668,0.039609163999557495,-0.27078336477279663,-1.3879622220993042,-0.03612760826945305,0.2774410843849182,0.47683006525039673,-1.200473666191101,0.15722543001174927,-0.6273564696311951,0.5593278408050537,0.25671857595443726,-0.17108729481697083,0.6112059950828552,0.5211502313613892,-2.096715211868286,0.931178867816925,0.17607492208480835,-1.1156288385391235,-0.28412899374961853,-0.1324014514684677,1.2574498653411865,0.32979410886764526],[-0.2134494185447693,-0.41676369309425354,-0.18533219397068024,-0.14003559947013855,0.08186453580856323,-0.013651208952069283,1.025952935218811,1.455423355102539,1.054320216178894,-0.17112135887145996,2.334268569946289,-0.6050485372543335,1.9329094886779785,-0.3077176511287689,-0.2771085202693939,-0.019874736666679382,1.2083837985992432,1.9323129653930664,0.17400752007961273,-0.22777190804481506,1.6361644268035889,-0.10108491778373718,-0.8092046976089478,-0.3083745241165161,-0.4252414405345917,-1.6259063482284546,-0.41374343633651733,-1.0216559171676636,-1.4369562864303589,1.3898013830184937,-0.15175588428974152,-0.28536951541900635,0.16855309903621674,-0.9442757964134216,0.36605045199394226,2.6394989490509033,0.4886687695980072,0.6079221963882446,-1.2190901041030884,0.49236005544662476],[-0.09262686967849731,1.2492868900299072,0.22723650932312012,-0.8144142627716064,-1.340082049369812,0.5040311813354492,1.5502804517745972,-0.8451568484306335,-0.24043728411197662,-1.2319947481155396,-0.01563219353556633,0.26584580540657043,-0.9072203040122986,-0.48968949913978577,-0.3590821325778961,1.8316504955291748,-0.6863983273506165,-0.4352661073207855,0.16793037950992584,0.144646555185318,-0.49559536576271057,0.4641043245792389,-0.6172602772712708,-0.24715809524059296,-0.6850742101669312,-0.25184348225593567,-0.4720763862133026,-0.9039536714553833,1.3114932775497437,-0.35072848200798035,-0.25674429535865784,-0.5036784410476685,-0.5381202697753906,0.6001054644584656,0.33042046427726746,-1.1471366882324219,0.8636693358421326,-1.7064135074615479,-0.2686186134815216,-1.991020917892456],[-0.5766128301620483,0.921278715133667,0.35409581661224365,1.5729010105133057,0.03401312232017517,0.6759188771247864,1.1219180822372437,-0.5316827297210693,1.574999213218689,0.0413258820772171,0.501054584980011,-0.6591299176216125,0.03941529989242554,-1.1748381853103638,0.6308706402778625,0.050917983055114746,-0.441602498292923,0.5301798582077026,-0.09583315253257751,1.105107069015503,1.635175108909607,1.1339150667190552,0.3185045123100281,-0.4553423523902893,0.6687057614326477,0.9588989615440369,2.1039676666259766,-0.10573449730873108,1.4727404117584229,0.06374889612197876,-0.4505801200866699,0.6495376229286194,0.7174898982048035,0.6101475954055786,-0.6471570134162903,-0.8893114328384399,1.8146864175796509,0.6066804528236389,1.8411688804626465,0.12825578451156616],[0.7609495520591736,-0.7077995538711548,0.6186152696609497,0.3436031639575958,-0.5662419199943542,0.11740576475858688,-0.1073485016822815,0.6564335227012634,0.3916896879673004,0.9624916911125183,0.7184996604919434,0.4011435806751251,-0.6597418785095215,0.23145590722560883,-1.5018764734268188,-0.38652732968330383,-0.2284415066242218,-1.9678250551223755,0.6818981766700745,-0.6350139379501343,0.6165070533752441,-0.7567369937896729,0.6305452585220337,-0.5574135184288025,1.9256010055541992,1.9373722076416016,0.06949486583471298,-0.8015246987342834,-0.13467074930667877,-0.6537391543388367,-2.1725313663482666,-0.6321145296096802,0.01099379826337099,0.8222225904464722,1.2865456342697144,-0.929924488067627,-0.013596432283520699,0.8548861145973206,-0.8763116598129272,-1.663126826286316],[-0.011944003403186798,-0.3930858373641968,-0.8173349499702454,-0.3714407682418823,0.7755433320999146,0.6973498463630676,0.9696261286735535,1.3370716571807861,1.3884669542312622,-0.4464915692806244,-1.809818148612976,-0.029339419677853584,0.023873593658208847,-0.9152765274047852,-0.015806499868631363,0.35981485247612,-0.05236274376511574,1.9831651449203491,2.0835721492767334,0.2184501737356186,0.406299889087677,0.9715806841850281,-1.3716374635696411,-0.18087834119796753,0.09810863435268402,-1.4303218126296997,-1.5183802843093872,-0.5187308192253113,-1.0601924657821655,-1.0196439027786255,0.7893233299255371,-0.0836772695183754,-2.4804532527923584,0.6758560538291931,-1.3671237230300903,0.8301612734794617,1.4722942113876343,0.07074152678251266,-0.3414977788925171,0.6459678411483765]],"output_weights":[[-1.0586111545562744,-0.858092725276947],[-0.5436957478523254,0.138503760099411],[-1.0767018795013428,-0.26441237330436707],[0.1442931890487671,0.3224155306816101],[-0.5187739729881287,0.9312123656272888],[1.5447741746902466,-0.49160948395729065],[-0.7404460310935974,0.5770993828773499],[-0.14693701267242432,0.8662619590759277],[1.638347864151001,0.1548154652118683],[0.35007861256599426,-0.5076951384544373],[-0.16360752284526825,1.546184778213501],[0.058198850601911545,-0.5248366594314575],[-0.9893528819084167,2.017627716064453],[0.680301308631897,-0.35259726643562317],[0.36693957448005676,0.25410857796669006],[-0.8648971915245056,0.4103293716907501],[-0.1785522699356079,-1.9444260597229004],[0.04826747998595238,0.5067296624183655],[0.14915604889392853,0.6778337359428406],[-0.1323147565126419,-3.101917028427124],[2.5220303535461426,-0.47189822793006897],[0.5893157124519348,-1.5784142017364502],[-0.5141767859458923,0.8684746623039246],[-1.5970689058303833,-0.4063739478588104],[-0.8177130222320557,0.369882196187973],[-0.39750906825065613,-0.33835986256599426],[0.1956944465637207,-0.6282964944839478],[0.5081002712249756,0.6190555691719055],[0.2826087474822998,0.06298910826444626],[0.14214108884334564,-0.41608163714408875],[-0.7775223255157471,-0.47521039843559265],[-0.5236152410507202,-0.8658487796783447],[0.0756329596042633,-1.0452821254730225],[0.779755175113678,0.48148393630981445],[1.6104631423950195,1.1663541793823242],[-0.7610699534416199,1.4286692142486572],[-0.7551024556159973,-0.8286988735198975],[-0.810592532157898,-0.11164170503616333],[0.11184708029031754,-0.3126021921634674],[-2.0090434551239014,1.0791569948196411]]}