{"input_weights":[[1.388598084449768,-0.19436052441596985,0.7657788395881653,-0.10032666474580765,0.8626304268836975,1.3261164426803589,1.3971433639526367,-2.545320749282837,1.278404951095581,0.5831361413002014,0.059552695602178574,1.1705443859100342,-0.9949427843093872,-0.3774874806404114,0.8386977910995483,-1.5589542388916016,0.021394483745098114,0.17860962450504303,-0.7297797203063965,1.6134765148162842,-0.8581460118293762,0.07745760679244995,-0.039984796196222305,0.10747240483760834,1.2902960777282715,-0.9523664116859436,0.15822696685791016,0.6839011907577515,-2.8744544982910156,-0.22541013360023499,-1.017431378364563,0.05982457473874092,-0.03718185052275658,0.010039292275905609,-0.8179770112037659,2.45955491065979,0.5989421606063843,-0.808510959148407,-0.03019726648926735,1.557410478591919],[0.22210879623889923,0.8833791613578796,1.299331784248352,-0.4851752817630768,-0.7064343690872192,1.496500849723816,0.6871123909950256,2.2766733169555664,-0.1081656962633133,0.7502229809761047,-0.1473841518163681,-0.1549241840839386,0.002866265596821904,0.7223930358886719,0.3638187348842621,0.6302523612976074,-0.2821423411369324,-0.41079479455947876,0.6602650880813599,1.8314170837402344,0.16894316673278809,-0.8828579187393188,0.0529615692794323,-1.9268721342086792,-0.1386163979768753,-0.8311626315116882,0.02668140083551407,0.13473747670650482,-0.3908505141735077,-0.48025575280189514,-0.43956154584884644,1.2401061058044434,0.3085670471191406,0.10495040565729141,0.9560480117797852,2.142036199569702,-0.9868035316467285,0.5875391960144043,-1.062223196029663,-0.09629635512828827],[-1.7714707851409912,-0.028785763308405876,-0.7813573479652405,-0.7711567878723145,0.2106560468673706,0.7262324690818787,-0.006235165521502495,-1.2107481956481934,-1.0547311305999756,-0.955253005027771,0.9224463701248169,-0.23563984036445618,1.3978428840637207,-0.021593499928712845,0.5213310718536377,-0.47836795449256897,2.2831108570098877,1.181228518486023,-0.13714757561683655,0.4248422384262085,-0.07190791517496109,-0.4438987076282501,-1.0494117736816406,0.5376070141792297,0.0713883563876152,1.118696689605713,0.3032551407814026,1.7591146230697632,-0.26877138018608093,-1.553476333618164,-0.0748257264494896,-0.29881882667541504,1.5872560739517212,-0.1671251654624939,-0.49420037865638733,-0.15352360904216766,-1.0501434803009033,-0.24072322249412537,-0.059336286038160324,0.3586950898170471],[0.3432033956050873,-1.126983404159546,0.9461504220962524,0.4425850212574005,-0.8242177963256836,-0.6936033368110657,0.22121292352676392,-0.08804111182689667,1.3942471742630005,-0.6060514450073242,0.5834704041481018,0.008031938225030899,-0.12121962755918503,0.4261265993118286,-1.388775110244751,-0.4842091500759125,-1.1819599866867065,1.2933809757232666,-0.2988949716091156,1.630507230758667,-0.9736408591270447,0.3433162569999695,0.40095555782318115,1.306037425994873,-1.546606421470642,-0.44642066955566406,-0.03173180669546127,-0.8821925520896912,-0.48040759563446045,-0.7068341374397278,-1.6257421970367432,-1.7518595457077026,-1.942915439605713,1.5342977046966553,0.945324182510376,0.4759541451931,1.1503924131393433,0.0872860997915268,-0.0685596615076065,-1.0262541770935059],[-1.4927183389663696,-0.4391811788082123,0.2645571827888489,1.3132027387619019,-0.24957211315631866,-0.7902428507804871,-0.3450469970703125,-1.5543432235717773,0.6658142805099487,-0.5245304703712463,-0.4640713334083557,-0.43225741386413574,1.0484919548034668,-0.3922252058982849,-0.07880034297704697,0.47244882583618164,-1.0231598615646362,-1.2749677896499634,-1.3297444581985474,-1.5199493169784546,-0.2911846339702606,1.7830109596252441,-0.8341311812400818,-0.621146023273468,0.7299779653549194,-0.4081657826900482,-0.6696362495422363,1.9637641906738281,0.08767281472682953,0.9975033402442932,-1.3963398933410645,-0.49095818400382996,-1.5056755542755127,-1.0425925254821777,-1.2232701778411865,-0.8904634714126587,1.0221296548843384,1.3021082878112793,-1.0757290124893188,1.576025366783142],[1.9085843563079834,0.1092914417386055,1.250352144241333,-2.074873685836792,-0.40416088700294495,-0.19484136998653412,-0.3673432171344757,-1.2823386192321777,-0.35073304176330566,-0.5553180575370789,-0.15298795700073242,0.6768114566802979,-0.4490395486354828,-1.627898931503296,-0.8052722811698914,-0.5699559450149536,0.27781739830970764,-1.2848984003067017,-1.0614439249038696,-0.6253180503845215,-0.5976767539978027,1.1482869386672974,0.17033013701438904,0.5818355083465576,0.1709699183702469,0.5234010219573975,0.47099408507347107,0.5699806809425354,1.379204273223877,-0.020349787548184395,1.1711840629577637,0.914355456829071,1.0924526453018188,1.5012178421020508,-0.1293613314628601,-0.31712573766708374,-1.0573097467422485,1.5336250066757202,-1.49565589427948,-0.968574047088623],[-1.7205814123153687,0.06824810802936554,-0.46978750824928284,2.398651361465454,-0.6315168738365173,-0.48969781398773193,0.6579427719116211,-0.8100424408912659,-0.8779136538505554,-0.5434397459030151,1.054986834526062,0.5221961140632629,1.7133212089538574,-1.620577335357666,1.4104796648025513,1.6557741165161133,1.0323739051818848,0.035405706614255905,-0.02460615336894989,-0.5896950364112854,-2.104649543762207,-0.025333262979984283,-0.06179606169462204,-1.3185864686965942,-0.34619060158729553,-0.5706099271774292,-1.399652361869812,-0.9019115567207336,-1.1606169939041138,-2.2651402950286865,-0.8013187050819397,3.1792547702789307,-1.2759850025177002,1.4424623250961304,-0.13791003823280334,1.1488776206970215,-0.07982581853866577,-0.77985018491745,0.730068027973175,1.0358433723449707],[-0.7206233143806458,0.006098989397287369,-1.7701315879821777,-0.6712381839752197,0.1337766945362091,1.2495920658111572,-0.05573341250419617,0.9008851647377014,-0.4628303349018097,1.1879867315292358,-0.5228340029716492,-0.6259555816650391,0.12206530570983887,0.924285352230072,0.09806634485721588,-0.9746580719947815,-1.3629934787750244,-0.6706080436706543,0.8731057643890381,-1.0736347436904907,-0.9759768843650818,1.5055044889450073,-0.6571025252342224,-0.19960123300552368,-0.5748096704483032,1.6961398124694824,1.4985214471817017,0.712142288684845,-1.583199381828308,1.262406587600708,-0.25373244285583496,0.12746034562587738,1.1094441413879395,-0.22485607862472534,-0.5945382118225098,-0.054438166320323944,-2.029351234436035,-1.1323466300964355,-0.42193466424942017,-0.4782921373844147]],"output_weights":[[0.5032964944839478,-1.0957659482955933],[-0.8911277651786804,-0.8952054977416992],[-0.1693415343761444,0.8878235220909119],[0.8843989372253418,2.296052932739258],[0.9265862703323364,0.45390236377716064],[0.3991895914077759,-0.3973657190799713],[-0.8350325226783752,-0.30801913142204285],[3.4166982173919678,-0.382872611284256],[-0.14224986732006073,0.35450297594070435],[1.1499311923980713,0.5306687355041504],[-0.7851064205169678,1.8866606950759888],[0.6462131142616272,-0.6487759351730347],[0.0028178838547319174,-1.0347899198532104],[-2.139937400817871,0.6561165452003479],[1.3594194650650024,-1.5283615589141846],[-0.9332293272018433,0.9309021234512329],[-0.005489515606313944,-0.5665848255157471],[-0.5351234078407288,0.28674137592315674],[0.1288066953420639,-0.23044604063034058],[-1.514894962310791,-1.2628318071365356],[-0.6913358569145203,0.14777380228042603],[-1.5166840553283691,0.4274060130119324],[1.3667453527450562,0.012824620120227337],[-0.3535109758377075,0.05745008960366249],[0.04705452546477318,-1.3799182176589966],[0.02194834314286709,0.43199920654296875],[0.6113793849945068,-0.20163321495056152],[-1.1502032279968262,1.425277590751648],[-1.2010407447814941,0.5511093735694885],[-0.5539255738258362,-0.2924184203147888],[-2.1330535411834717,-0.29523783922195435],[2.2736012935638428,-2.6377434730529785],[0.04562641680240631,-0.24805128574371338],[0.3105187714099884,-0.8362798690795898],[-0.22631505131721497,0.04385039955377579],[0.6006487607955933,-0.17440582811832428],[-1.9649518728256226,0.09574051946401596],[0.6890481114387512,1.8928266763687134],[1.3467777967453003,-0.8772168159484863],[0.7151917219161987,-1.5301085710525513]]}