{"input_weights":[[1.755499005317688,-1.2695105075836182,1.6302443742752075,-1.8594398498535156,2.2880752086639404,-0.5609328150749207,1.1067694425582886,0.4139276146888733,-0.0367366187274456,0.8936546444892883,-2.5186569690704346,2.483128547668457,-0.13992281258106232,0.7939843535423279,0.03297404944896698,-0.7559417486190796,-1.8395445346832275,0.5412657260894775,0.7705921530723572,-1.1142109632492065,0.795491099357605,1.0424493551254272,-1.7982573509216309,0.18525144457817078,-0.6218723654747009,0.5152694582939148,2.510805130004883,0.4947134554386139,-0.5160959362983704,-0.4215584099292755,-4.216925621032715,-2.4342730045318604,-1.3804457187652588,-0.04670492932200432,-1.7161216735839844,1.831741213798523,4.032154560089111,0.17651604115962982,0.050868090242147446,-0.1958278864622116],[1.3668887615203857,-1.9636600017547607,0.8697207570075989,1.0942065715789795,-0.36265280842781067,1.615218997001648,-1.513505220413208,1.6174782514572144,0.7414884567260742,0.11833194643259048,1.108140468597412,-0.833759605884552,1.704338788986206,2.2334866523742676,1.0999245643615723,1.0589593648910522,-1.8299047946929932,1.233860969543457,-0.3719574511051178,0.07137312740087509,0.10716847330331802,0.4812530279159546,-1.1159101724624634,0.9520441293716431,-1.275922417640686,0.13886284828186035,1.1249945163726807,1.5299911499023438,1.341913104057312,0.40496426820755005,2.8495333194732666,-1.1549686193466187,0.0011373417219147086,-0.14266429841518402,0.965712308883667,0.25378429889678955,-1.139991044998169,-0.15046754479408264,-0.8447120785713196,0.11860167235136032],[-1.2870876789093018,-0.6169348359107971,0.982201874256134,-0.16369427740573883,1.2793872356414795,2.1564323902130127,1.8159230947494507,1.0858434438705444,-0.3724067807197571,-1.7820305824279785,0.28390318155288696,-0.3520548939704895,-0.9842812418937683,0.4301345944404602,-1.1222877502441406,0.380093514919281,0.8278688788414001,1.8326183557510376,-1.088090419769287,0.2545507848262787,-3.0996997356414795,-1.3530206680297852,-0.9775634407997131,1.8666893243789673,1.1505104303359985,-0.1297883689403534,-1.1095882654190063,0.017111197113990784,2.5729682445526123,2.224093437194824,2.2701821327209473,-0.24236023426055908,-1.3935552835464478,-0.29081571102142334,1.6789873838424683,-1.2063199281692505,0.5075071454048157,-0.16677913069725037,-0.035721778869628906,0.8415416479110718],[-3.346085548400879,0.5518617033958435,0.9744057655334473,3.311352014541626,-2.521596908569336,1.6090471744537354,-1.1885133981704712,1.582179307937622,-1.7186740636825562,-1.6809813976287842,-1.9602323770523071,0.3338124752044678,2.1786653995513916,1.9964195489883423,2.30376935005188,2.6836912631988525,1.3422831296920776,0.373940110206604,-0.9717887043952942,0.5003011226654053,-0.3781183063983917,-1.2878425121307373,-0.9461515545845032,1.3522601127624512,0.10378307849168777,-0.5204465985298157,2.932945489883423,0.9448239803314209,0.9971675276756287,0.8116146922111511,-0.9389220476150513,-1.1448813676834106,0.0014692647382616997,0.01766302064061165,0.5515914559364319,2.0546305179595947,0.3379838764667511,2.746302843093872,0.9911541938781738,1.121989130973816],[0.36022770404815674,-0.6534082889556885,-1.5771530866622925,-1.1108896732330322,-0.8098852634429932,-1.4758381843566895,0.3998934328556061,-0.8891298174858093,0.34679973125457764,-0.9449947476387024,-0.7588943839073181,1.4972552061080933,-0.12017591297626495,0.14775630831718445,-0.026164600625634193,-0.35785171389579773,-0.45105621218681335,-1.25216543674469,-1.3481601476669312,0.3778637945652008,2.2995872497558594,0.039676763117313385,1.6034983396530151,-1.6358729600906372,3.0267605781555176,0.044079653918743134,-0.22453083097934723,-1.2272273302078247,0.6483632326126099,0.8010451793670654,-0.3125898838043213,-0.457193523645401,1.0329997539520264,-1.2068092823028564,-0.024435555562376976,0.22044755518436432,0.09421079605817795,-0.5991396307945251,-1.4873689413070679,0.7751086950302124],[2.071521759033203,0.06501453369855881,0.3558831512928009,-2.4147822856903076,-3.2891526222229004,-0.12132112681865692,-0.11315803974866867,0.9000107645988464,2.1560170650482178,-1.5818452835083008,1.2673301696777344,-1.7805893421173096,2.384248733520508,0.4015451967716217,-1.5382715463638306,0.904632031917572,0.8077295422554016,-0.5482527017593384,-1.7521919012069702,-0.46145492792129517,0.5504947304725647,-0.25600749254226685,-0.01624811813235283,1.890023946762085,-2.560462474822998,-2.66628360748291,2.069612979888916,0.7616091966629028,0.2882770597934723,-1.8758538961410522,-1.064607858657837,-0.8663831949234009,0.7202234268188477,0.8961173892021179,-0.5869466662406921,2.7977347373962402,-0.3152025043964386,1.8226408958435059,-2.2184934616088867,0.31128084659576416],[2.15826678276062,1.5637023448944092,0.9202884435653687,0.15652452409267426,-0.7353239059448242,0.26708993315696716,-0.03409431129693985,-1.103089690208435,-0.7425575852394104,-1.283716082572937,1.7467615604400635,1.105491280555725,0.9380839467048645,1.8664031028747559,0.6809225678443909,-1.591200351715088,0.9703148007392883,-0.6685980558395386,-1.1225885152816772,0.24881607294082642,0.4071619212627411,0.6266016960144043,0.9154868721961975,0.1148981899023056,0.6333867907524109,0.09166716039180756,-2.1624176502227783,0.19846713542938232,0.4425942599773407,-0.09323075413703918,0.5599238872528076,0.4867682158946991,0.24798116087913513,-0.12951357662677765,0.44258618354797363,0.7581466436386108,2.2511630058288574,-2.142995834350586,-3.8229191303253174,-0.12336059659719467],[-1.4159026145935059,0.7875980734825134,0.3223710358142853,-0.35154011845588684,-0.7469582557678223,0.757085919380188,0.5216376185417175,-0.3554121255874634,0.7143295407295227,0.2585141062736511,-0.8258853554725647,0.1340787708759308,1.2045267820358276,0.001779297017492354,-0.28579622507095337,0.6704155802726746,1.812933325767517,0.24367590248584747,0.8237130641937256,2.4585511684417725,-0.8927590250968933,0.2945493459701538,-0.705075204372406,-0.5376354455947876,0.8746854662895203,0.29065483808517456,-1.3049322366714478,0.34146013855934143,0.29236990213394165,-1.2315595149993896,1.2918572425842285,1.0508816242218018,-1.242376446723938,-0.5206050276756287,-3.43363094329834,-1.8682032823562622,-0.5114462375640869,0.27169269323349,-0.21995824575424194,3.235884428024292]],"output_weights":[[0.03227641060948372,0.23117896914482117],[0.37132322788238525,2.0761451721191406],[-1.7804911136627197,-0.28876715898513794],[1.7638605833053589,-2.306338310241699],[-2.7727622985839844,-1.5709338188171387],[0.533806324005127,-0.19614256918430328],[0.7378427386283875,-0.5879095196723938],[1.256425380706787,0.5891320109367371],[-0.7098800539970398,2.0857231616973877],[-0.9250726699829102,-0.19690074026584625],[1.8378932476043701,0.08626728504896164],[-0.13712356984615326,-0.7115210294723511],[1.4129270315170288,0.08759154379367828],[-1.7287293672561646,0.8296037316322327],[1.707527995109558,-0.1609819531440735],[0.26287534832954407,-1.5240111351013184],[-0.32425862550735474,-1.8949108123779297],[1.017566442489624,1.0116957426071167],[-2.3877453804016113,0.3006965219974518],[0.07945282757282257,-0.3292081356048584],[-2.341273546218872,2.3050732612609863],[1.5728672742843628,0.04138724505901337],[-0.7541837692260742,-0.08612740784883499],[-0.9128338098526001,-2.0810775756835938],[0.07122426480054855,1.3121752738952637],[-2.634563446044922,-0.8713537454605103],[0.3124869763851166,-2.0820162296295166],[-1.0673176050186157,-1.570105791091919],[-0.6086835861206055,0.7829943299293518],[0.188807874917984,2.0636327266693115],[-2.8669886589050293,-0.3584260046482086],[-0.524657666683197,-1.0010223388671875],[-1.0100083351135254,-0.2702924907207489],[-1.1296064853668213,-1.8417085409164429],[-0.1414412558078766,-1.0737347602844238],[-0.08582497388124466,0.7708476781845093],[0.35044077038764954,1.0994588136672974],[1.941896915435791,0.5339498519897461],[1.5477958917617798,0.4457511901855469],[0.15044529736042023,0.4604717195034027]]}